FANN_FLO_2.1
num_layers=6
learning_rate=1.000000
connection_rate=1.000000
network_type=1
learning_momentum=0.000000
training_algorithm=2
train_error_function=0
train_stop_function=0
cascade_output_change_fraction=0.010000
quickprop_decay=-0.000100
quickprop_mu=1.750000
rprop_increase_factor=1.200000
rprop_decrease_factor=0.500000
rprop_delta_min=0.000000
rprop_delta_max=50.000000
rprop_delta_zero=0.100000
cascade_output_stagnation_epochs=12
cascade_candidate_change_fraction=0.010000
cascade_candidate_stagnation_epochs=12
cascade_max_out_epochs=150
cascade_min_out_epochs=50
cascade_max_cand_epochs=150
cascade_min_cand_epochs=50
cascade_num_candidate_groups=2
bit_fail_limit=3.49999999999999980000e-001
cascade_candidate_limit=1.00000000000000000000e+003
cascade_weight_multiplier=4.00000000000000020000e-001
cascade_activation_functions_count=10
cascade_activation_functions=3 5 7 8 10 11 14 15 16 17 
cascade_activation_steepnesses_count=4
cascade_activation_steepnesses=2.50000000000000000000e-001 5.00000000000000000000e-001 7.50000000000000000000e-001 1.00000000000000000000e+000 
layer_sizes=4 3 1 1 1 3 
scale_included=0
neurons (num_inputs, activation_function, activation_steepness)=(0, 0, 0.00000000000000000000e+000) (0, 0, 0.00000000000000000000e+000) (0, 0, 0.00000000000000000000e+000) (0, 0, 0.00000000000000000000e+000) (4, 4, 5.00000000000000000000e-001) (4, 4, 5.00000000000000000000e-001) (4, 4, 5.00000000000000000000e-001) (7, 11, 7.50000000000000000000e-001) (8, 7, 1.00000000000000000000e+000) (9, 7, 5.00000000000000000000e-001) (10, 4, 5.00000000000000000000e-001) (10, 4, 5.00000000000000000000e-001) (10, 4, 5.00000000000000000000e-001) 
connections (connected_to_neuron, weight)=(0, 1.56921371817588810000e-002) (1, 7.50427320599555970000e-002) (2, -7.86133110523223880000e-003) (3, -1.93176269531250000000e-002) (0, 1.96899399161338810000e-002) (1, -8.36242660880088810000e-002) (2, 2.28881835937500000000e-003) (3, 6.53808638453483580000e-002) (0, 6.74072280526161190000e-002) (1, -7.39807114005088810000e-002) (2, -5.95764182507991790000e-002) (3, 7.36328139901161190000e-002) (0, -5.24526943854758400000e-001) (1, -3.90930193647485420000e+000) (2, -2.51028925309499760000e+000) (3, 5.44915960506588970000e-001) (4, 4.99751852230222120000e-001) (5, 5.65734193996579200000e-001) (6, 4.15862912962049540000e-003) (0, 5.91458913426860010000e+000) (1, 1.92213086346491010000e+000) (2, -6.07909916339109620000e-001) (3, -1.69730754500312960000e+000) (4, 1.30795912140922390000e+000) (5, 1.64972369069175560000e+000) (6, 1.92096690529899440000e+000) (7, 3.91956354198768620000e-001) (0, 2.88450042337784170000e+000) (1, -2.55719716266281780000e+000) (2, 3.29654828768600790000e+001) (3, 9.59186461817421070000e-001) (4, 1.46726001524905740000e+000) (5, 1.77548946166018970000e+000) (6, 1.01781607890109590000e+000) (7, 4.52611829859824070000e+000) (8, 1.74896653451307720000e+000) (0, -7.96638948298409310000e+000) (1, -1.28069466889226170000e+001) (2, 5.96033052569965440000e+000) (3, 1.65919588376060760000e+000) (4, 1.59772737939134870000e+000) (5, 1.61371859032884870000e+000) (6, 1.71465243268982230000e+000) (7, 2.33424686451845130000e+000) (8, 7.14768577258217450000e+001) (9, -9.86673052812498060000e+000) (0, 4.05959193618350310000e-001) (1, 2.09837953430613910000e+001) (2, 2.42981307432918070000e+001) (3, -1.27718560709391030000e+000) (4, -1.14220635532174540000e+000) (5, -2.31264433133414690000e+000) (6, -5.64253066899375890000e+000) (7, -1.30721196796269190000e+001) (8, 4.84663772796174100000e+000) (9, -6.85160900495244790000e+001) (0, -1.42148042802104490000e+000) (1, 2.16649102125870170000e+001) (2, -3.55047997221950110000e+000) (3, -6.98790917915355190000e-001) (4, -6.57775292915354970000e-001) (5, -7.32967352092150910000e-001) (6, -8.10854313492659800000e-001) (7, -2.91143069147053040000e+000) (8, -7.12382038547966500000e-003) (9, 5.38275210015618630000e+001) 
